13,59
30,59
2,7
-10,9
-5,4
-10,9
42.331819411459925,-9.125777188700138,26.112518321101508,0.3757125181871733,5.077613345124037,-5.681605131885918,5.59736983465086,0.0,-37.783346559517064,-3.8275172448951733,283.67763835949904,-51.25172071618169,4.534208744360197,-4.785644912539811,1.9129011726748961,-3.225101557289222,13.02481460300442,10.92665406040836,7.329596639792222,8.201420759246009,30.35123366907712,4.010777152234874,12.85417647381558,17.54460747822518,11.980585742383035,4.010777152234903,18.487441796109923,26.1463748324517,11.392021480249257,9.786815193273101,8.263612268423206,10.429833768065109,20.972406688963893,-5.330666862530131,16.223785338235114,6.871348101789868,10.69845493175743,7.574287834809631,-28.714198947411376,-34.79398271576247,111.13731871378936,-31.042618602937043,8.953292067538246,10.344403159699501,0.0,55.59845821849959,5.541746502306069,10.024700556825946,-0.07647415285557904,0.5928674718299413,0.0,-41.12582691120148,-59.78711221300483,141.466448287403,-47.01077214199965,-22.262837142650334,-9.170820072611637,-12.727739622403888,9.53689218794913,-0.21940262933126184,15.344511757581461,-4.377508736351329,12.486801120034269,-6.450557528917408,-2.15769551134196,5.124544809062476,0.4328247832708312,-2.675219659782772,-2.157695511341964,6.818896899277241,-2.825438756352307,10.970698336151331,-1.921015126248279,-6.8871269717660475,3.1325149189823636,5.420066370643261,0.8958378420659512,-6.53719537016896,3.0267998312646576,0.6057708496503572,8.90823473849447,-4.752267060208372,-10.372968722247577,36.59946385172243,-4.568029543143774,0.6866709027182678,-5.152525142616564,3.965654924283068,2.523925673363591,-48.00582519770361,6.315291080589823,0.0,-28.196089446532323,-5.7305387784543,79.38974650597571,-6.003963720351759,-8.913625359248957,-12.292215208534133,-1.5344606155114835,-0.8817344871506432,8.478592562237457,0.8538625263814572,-8.514227987681625,0.4691366604646443,12.913227209869211,6.168607692006881,-15.473635476383784,-9.278462469817212,13.199291111232647,6.168607692006878,1.0076385251761564,2.9381238783097596,2.2193957417025727,3.39918300781207,-1.2021267569898235,-13.857316136186537,6.9619424113047845,-8.121954180664265,3.38053594095352,-4.791383673072196,7.300291652631071,-2.3281122149033893,-6.066021971298722,-6.644881449317458,22.4808811593166,-8.130482381242897,15.593427353877104,-4.601371056473404,69.5985261583952,-2.627632480713514,13.483149912006615,0.0,-2.5366696514434772,-3.70440705382172,6.115128503883073,-0.7575611193586486,-0.5710138196870804,-7.007466948315871,6.368011116909453,5.306642853465351,2.7406674974693868,-2.6690272972288067,-7.113358624097468,2.770648442938934,1.8085920082266433,-16.22093692750448,-3.350364560341501,-9.6108311323817,-1.4328794900396902,-16.220936927504514,-7.4711435158664,-6.946951757464122,-8.024517060333539,-1.5180988275852576,-2.73157754462096,0.1340904089830382,-3.7209065737126226,-0.8863656984884847,-1.9375217094864388,4.779389837482356,-3.8221060615819975,7.132733209578213,5.871947949395795,-1.0633563353394873,6.996893120904772,5.791706515130573,3.214320805557595,-0.4082721222334387,1.0247380339323156,-4.982378757966608,0.0,-15.17544887656314,4.985806966377336,38.718448683819396,-17.192996207592948,-12.855503701882014,-0.533844501437068,-3.4223654401369057,-0.41914634591539607,-5.251580483764254,-8.535650057002677,6.397860882875966,-8.478164572497825,-3.024397092343972,8.41293434905249,-5.063386724992082,0.16254364644383387,8.102010437467975,8.41293434905254,1.9326400189575021,-3.099321025755948,8.777758509525341,-13.232160245754725,11.76978421040283,-15.333722309955585,1.7176412853578111,3.757711219990593,-0.47193234580322035,-6.924480626433233,3.6427050193764314,-1.208837730032354,-3.9947484052768463,-3.2469867313139757,14.888490038330309,-7.178762587536935,-2.556618538200126,15.274499393714066,9.94855027925938,0.0,-4.162693783435133,-0.2648427576302143,28.27028723015033,-5.410592484397636,2.9739572523344306,-2.935088570796672,22.904008393702732,6.2167235193861465,9.98180228695656,-2.931021146616032,-1.342932058110571,-3.749092175367316,-3.6338129743956,-0.3365769346580718,-1.5097199260006209,-2.8926310946817524,-2.047792157490224,-0.3365769346580649,-5.385557234191778,-1.2360606806896983,-19.83056478244908,1.6148744675474087,-1.9975873271892655,-1.4200480673900966,-6.293340669453641,-29.505559407021376,-1.8252702083494245,-25.494927873440915,-9.911145061769808,-20.50746736155402,4.066539959122017,-9.024355215437112,15.933699853069461,-3.4093887516125005,-2.9125663415048377,-3.812243070333936,0.0,-12.900789853498315,-8.762217124265591,75.3981562108725,-18.21512439947087,-15.39299547900321,5.914402081566988,9.510206689723809,-12.947070788880954,-1.459229419826906,-14.87636764529709,-0.38582567507965454,0.9849424077952764,7.22783509847861,-1.3208661480129904,-1.598685325442703,8.985449325770281,-1.6304652638277177,-1.320866148012992,-12.84220958647637,4.011007576960656,6.700085243581245,4.820681555378683,-1.4732548242971981,9.68170484036361,-15.731628934453289,1.0570048166587436,-16.91536181218983,0.4903047367852966,-4.393399028816213,5.150167504584789,-36.25839829890901,-50.5966831324472,39.9374825222309,-47.36931910731194,-38.67561530294916,-2.988879017569876,0.0,0.0,0.0,0.0,0.0,0.0,0.0,0.0,0.0,0.0,0.0,0.0,0.0,0.0,0.0,0.0,0.0,0.0,0.0,0.0,0.0,0.0,0.0,0.0,0.0,0.0,0.0,0.0,0.0,0.0,0.0,0.0,0.0,0.0,0.0,0.0,34.23954540837268,83.0195613744497,-47.32936977373792,7.102236769346666,-1.6249837339186994,-23.82490509553582,8.545834089012919,-8.149331239525054,0.7061667910843935,-6.049694949880856,1.4687079569195285,-20.332483662527775,-6.032429473514469,4.641966582091479,-1.933423001958754,-17.450862896988305,-6.032429473514492,-9.004600318368615,-3.56607827293819,-4.338419982867625,-5.580086272546787,-10.267797257649748,-2.7727285832938544,3.781147749158505,-2.7479173481133823,-7.7752910996183155,-9.140512099847705,-5.822158509751437,14.189226061868636,-15.37564060247484,-9.135968908395926,27.151492443685296,-5.576099659043347,-2.5480844868654957,-1.1639049970795672,107.63859628879356,-21.274657636034906,6.080467053172641,-3.0067505913230717,-8.4367937089118,6.268998840125594,4.212669256371266,6.422440846992934,-3.4655209275002044,-1.6512090112165279,-0.4780104151574646,-0.34612273617253525,5.647642068050525,-3.941999738991294,-3.3495068297376336,-0.3461227361725255,4.08842143686536,0.8172998493385549,6.191476416368456,1.6164542842379597,-2.052407917454634,-2.088536963267987,-4.319798701495222,1.4784307294659962,3.778253910194473,0.01266520368913379,1.8668354033561054,-3.2359749098243045,-4.63660561551525,-0.3684622008714329,0.5237087984642207,-3.191273340641871,-2.680953351215754,-5.143366189672298,101.47207872845559,34.88881943124325,18.328948919857655,53.54727787727102,7.065038792062865,25.898734626323446,16.908720326365074,12.770384172116326,11.062272236241743,141.85708852135994,0.11409508696659,5.205511164523531,2.116976551603484,141.8205498381499,0.11409508696660181,29.47256627958505,-1.0668518374565137,12.740688556776032,2.750836389416103,4.88694852067396,2.8333576888351595,31.479636173900687,-2.3658966482243406,10.746829885687653,8.266347164588517,4.594117638350482,8.919675130433136,44.232133815254265,1.7580900509105248,40.10014375217666,1.998927199862104,15.203279748445025,4.870203785432683,-13.21993946264864,23.82369638964577,-7.415714904367322,5.300003313475046,0.9209633006714885,-0.2084925941591186,-3.9045041847351034,-2.2885536332583785,-24.004546533767492,-4.6619307366815335,-1.1348610449363439,3.7868659673685654,-27.24717418241567,-4.661930736681542,-11.826412859705343,0.42734695453758964,-5.487708288228408,-1.4227728541018845,-1.8370544332908012,-2.7253136948431282,-2.9294801669966724,-1.9787302265311482,-3.1589496036351,-0.3179562330046061,-2.767041575151693,-0.4104908969356093,-10.956947804597899,2.0201566311112535,-5.472162527381016,-2.021053551767737,-0.2733993198653888,-6.198873762651661,3.6444243374416807,-3.399948147355727,2.148918047783885,-3.8811419310306037,2.6578219923347293,-1.9110250506587596,-0.47179207001771656,2.365117347816823,0.3403264456428305,-0.5386198669508552,-0.2785670848134189,2.169091396543357,0.34032644564282377,-4.950141195906851,-4.4759072819173085,-1.7393164436275241,-1.6943927425191236,3.5238548035287875,-1.7134777599698676,-1.997878499401845,-6.303349773619033,-2.354580426321457,-1.0145145453982019,-0.6925994681360622,3.5307453287851667,-10.351602282497465,-1.0579645384106626,1.9608808131724227,-1.2157828613668564,0.4557235691682871,-4.315268484311609,-2.4660222384518167,0.014292767293885556,-6.125717732143353,-2.3737330719908636,0.5723866771525843,-1.1721494642448225,-2.21810346071002,2.731573741881955,-1.8747270827456493,-3.905730129836892,-2.5675414518296935,2.7315737418819652,-2.3566018940059745,5.181577307485694,-1.289259071302737,1.860287620539068,1.4781494878613595,-6.388579872080719,-2.6169807017996143,-0.6741336989073384,-3.2717779391324218,-4.081797959148957,-1.4926960445263062,-0.5320645595486622,6.738609495043847,1.007223652300689,2.6567803769342935,-4.512388515823476,2.741584318609983,-0.8992498828452314,-13.27432882085315,-13.545869533569368,2.7046883337470593,-1.1832783766927608,-1.4157803144580214,-0.05203188132389073,4.123476802071189,-4.68231449050506,-6.600057857342081,1.9649330539988255,4.123476802071197,-8.049836426024491,1.9550854517881557,-4.79710658019528,3.9532026463348267,5.071234725207871,-5.187656735034021,3.394258698011538,-8.751031027952674,-1.5440854815360547,3.1413546359082707,6.025334482836308,-2.530860841468387,-7.257842853226273,-10.830110972706787,19.78877741936074,-7.2613064334839175,12.362114035948263,-2.375523795317263,-8.441737026464487,-8.495911664269899,-0.3114668655539056,-4.205183316245501,0.12970083936525528,0.001952298328796964,1.1349868310865907,0.8256829047424894,-3.3548023966545286,0.0019522983288128726,3.3326552882433003,-2.461868818689948,1.4348291500726562,3.400565448028329,3.320730850604533,4.563365887769825,11.787409124668493,0.6182299478321737,-0.3547439699502045,0.7742867430741155,4.225052431455574,-1.455585163446186,-4.520033971168875,5.867006199429774,0.0032311092038832707,-3.0044401713565048,-2.9667688611568526,-8.07594003386419,-2.06629878764247,-0.31132552454329765,0.6430884380225994,8.013704551544404,1.7559658093907626,-3.3303034352370378,-0.24412581439326866,5.011110051460526,1.7559658093907662,-3.1585573201725823,2.108398496672138,-5.12913108545965,-1.8059418180444098,-3.7469911340367954,-5.590235248183492,-1.3156336527883945,-7.482612699641636,1.6882857623962417,1.119068673911421,-0.20404580033327188,-4.963466437231205,-1.4734418370100062,-1.3194837634644117,9.653248405763026,-5.137694396621042,-1.0082752533121904,-7.1361296445706435,-4.912451444364714,-6.23296897262124,1.6135114384719589,-1.187832897697985,-4.878033480509172,3.3590697007977357,9.313142621936912,-1.187832897697989,-6.1128408792147235,1.3582977762627972,-3.98809924026618,-0.798011780150168,-1.8199264297601436,2.457654003175576,4.8885094947539365,-4.406531135925114,2.666777567957656,1.9354161603316513,6.802390463655426,-8.741334802356086,-5.497290992004965,0.1907775014030496,-4.716029879394891,1.8015620919532465,-3.382262311782557,-4.25456818129414,-5.337063367448718,-0.5291517593289203,-1.4824407888576074,-1.5029273680098467,2.0501187364806674,7.858748399121233,-1.4824407888576059,3.4515607576013716,6.25140994722482,0.8585104163943502,-5.124521019517726,3.019493623056463,-1.7413633640662027,0.20107473844019289,0.12044741529194873,4.45631230855929,1.9242083788254132,0.9591556510308404,-3.66959630945847,-1.4248716081411652,-0.22154245564245115,6.679872981300562,-6.417555534382205,2.1289972251951657,-2.839054461555281,3.1594893581560792,-1.230128387222402,-0.8490873138021293,-2.9961393209738385,5.041931401089914,-1.2301283872224194,-3.5210015544389504,-3.6832657044592825,-4.323108425162127,-1.5301174203147756,2.6628822768931895,-1.7636738494636313,-0.563787692951633,-1.5623942833849842,1.5199396335169202,1.0152381457089563,-4.616761970270278,-0.6062469057226724,2.5873203541627645,-0.2883220912151429,5.708155690913396,-0.4024559537779974,-2.8336802956452085,1.0344015552993744,4.520117249812165,7.636292637083379,13.146568037928294,4.386151869556321,4.520117249812135,2.5961694435519655,12.813677907522866,1.31834236298886,4.393419612359821,0.027417972099121567,7.3336529487812205,9.001986033257095,-4.46715864813356,7.513074934834277,5.367692784649853,4.715969795227063,8.327112508783815,-13.433934069590116,-18.406451602612943,59.527168088812275,-12.366001853659222,3.478782173920734,3.272024343056506,2.2237862589755455,-4.999371232884325,-0.5093400975773149,-2.1860258310736893,4.009256377644979,2.368857843840355,0.8900720498568084,0.3974581256270777,0.8595846310876082,0.35104324668674314,-1.9831216125455204,1.4210188705962388,2.855599679321698,3.028938563967182,-0.3906383033868879,-0.8844693869225426,-1.6383939723222123,-3.042337990513339,0.26467824748858343,-4.279955730944931,-0.6859163869621835,0.032599770252853884,2.3201061323188408,5.217883836731997,2.223786258975549,-2.2058961821288054,1.8762606324273832,0.5031603153366462,-0.7519500170968548,-3.2633122077808303,-3.3885753094607978,-1.6500659185234365,-1.483810810239128,-1.7227106507674486,1.1506487282547404,-1.6922126158206703,5.458594546346301,-5.257277266079788,-4.336350949691322,0.962479122060558,0.40370854487096164,-0.31389385128242353,-1.247539974159486,4.3980394402975715,-4.99937123288436,-3.968578042250468,0.1984541146249289,-5.055887356886007,-6.49213347143365,-4.466709593943308,-4.054076172241154,-4.344440121000832,-0.8688631140933105,0.48178545483187796,-0.29498697158197407,-1.7599605001879755,-3.215100421040824,5.046617196049548,-0.18463129032720457,3.1424369805657006,5.156662991042381,-0.0011618031337958272,2.785895223850331,-0.5093400975772865,15.891272352557735,13.332696924928415,10.073679117260687,5.393395580913723,8.236194296324117,3.09618081928382,11.970420655706947,-0.863508214396551,8.71071040340105,1.5036553171400213,5.982485136530173,-0.7528246739741121,-15.280264877821294,-16.387531113149265,51.610150624974224,-18.67661674927758,5.474509893617755,7.072378816642952,4.009256377644968,2.3688578438403747,0.8900720498568264,0.3974581256270581,0.8595846310876313,0.35104324668674797,-1.9831216125455335,1.4210188705962328,2.8555996793216814,3.028938563967184,-0.39063830338688865,-0.8844693869225383,-1.6383939723222145,-3.042337990513327,0.26467824748860036,-4.279955730944931,-0.6859163869621754,0.032599770252860316,9.290481405045877,-3.7054406875733252,3.8148839938618715,11.025656849477947,-0.5748086135748887,-5.413706191206539,8.2063322216718,-2.049546373320705,-11.042195559815973,-3.198283807180978,-5.220510431998114,-5.536825856141804,-4.021270935082021,7.765168888531455,-5.271369779214105,-4.216486005770681,7.673650105097078,7.107719700710904,17.93609019624666,1.3537339040357,18.086732286454453,-0.45492244190964365,3.6798611925031843,0.7434747270644263,-0.8044372702576779,-0.11101756688853437,2.160135347329633,0.4485481784454448,0.5464210086095507,0.8294412989551728,-3.8326973435062364,2.4984909965228206,4.898312849800065,-3.2191108754299846,-7.126965273287928,1.5423237793861888,-9.30882087769987,0.21224199874107194,-3.6761601236821755,0.8598179226475842,-2.6911011149455972,2.84976585104183,6.4468104253421,1.659627491430778,5.564740819708413,0.07551110668790273,-5.740378187391261,-2.2506040118613435,-5.230334226662803,0.20764966633528684,-3.9823473151656086,-0.9439405751882419,5.177202922648054,0.3845404414498936,-6.169603013996972,5.472945319857479,4.1430388516781695,2.5053229223729234,-2.0194322072116972,0.49817485328879074,2.5221605926258936,6.8240240003141315,-0.21862021842798401,-5.845490204004194,-4.534636386967146,3.9312301995541987,-1.5302901677020522,0.9851818584083192,2.868478239354644,-2.225457306671165,-7.141653678791741,9.807856842407585,-1.0139905735394465,-4.535718991706853,-2.9658281090053795,-4.729049472099943,-0.7604563677284487,-0.8666007786081295,2.014198022524488,3.5368983512125722,-2.7541899862654295,2.966984307928564,-1.4918344045192253,5.890982237732236,-0.5673551108438069,0.6678440108944835,-0.2518032198857331,-3.9976160315216993,-0.43976610440476555,8.30170465900859,10.481144548299882,1.3928497402094218,-9.71457760004095,0.13509227150745698,8.453672691501442,-2.013954324402076,-9.80756584762245,-5.405196256601034,-0.27036500689827075,-14.605995252225773,-0.367790762452656,-11.02828671138099,6.031047313258562,24.85498254709312,1.1510309556892517,4.566413066708099,-2.5795351086415246,6.222104710394148,-1.6522518263455443,-2.526238241928016,-2.362793536774184,-7.518208633940221,4.084569167577406,2.2843366217970598,-7.215190277018605,-2.6124170213072087,-0.4263897472637444,-7.9479907902706755,-5.103014162475562,1.6873581471731114,7.0468868651848355,4.1153812726651555,-3.2093322711575563,2.1343861392008128,-1.342863047135573,-1.3982077153897847,-1.454446297541493,-1.209149303758534,-1.2449695193493016,-6.902607612921548,1.6954368400601418,-3.7035022826274027,2.191017231161408,3.05353849468323,-2.1423492275102105,2.9818748998609856,-0.175512698326128,-1.487320895193428,-19.84419343243751,16.880826342389557,-12.368922646372058,-19.366618497549236,-10.552757871394135,30.74109980124388,-57.73342303502792,16.956622335113092,-24.38892326102709,26.41124079301229,10.241135131250177,13.998682403414094,-12.801137297000196,-7.815111322268774,1.3002060500704742
